<?xml version="1.0"?>
<opencv_storage>
<opencv_ml_svm>
  <format>3</format>
  <svmType>C_SVC</svmType>
  <kernel>
    <type>LINEAR</type></kernel>
  <C>6.2500000000000000e+01</C>
  <term_criteria><epsilon>9.9999999999999995e-07</epsilon>
    <iterations>100</iterations></term_criteria>
  <var_count>70</var_count>
  <class_count>2</class_count>
  <class_labels type_id="opencv-matrix">
    <rows>2</rows>
    <cols>1</cols>
    <dt>i</dt>
    <data>
      0 1</data></class_labels>
  <sv_total>1</sv_total>
  <support_vectors>
    <_>
      9.93683720e+00 2.52106738e+00 -3.20352292e+00 2.74287105e+00
      1.14931732e-01 -2.32825261e-02 1.85886234e-01 -1.44573343e+00
      7.58765745e+00 1.10064900e+00 -1.54176325e-01 -2.38058472e+00
      3.64039510e-01 8.06964114e-02 -6.85656667e-01 1.46477178e-01
      -2.14937955e-01 -3.78533840e+00 -3.03286171e+00 -3.19678283e+00
      1.17700648e+00 -1.82880390e+00 -8.47788572e-01 -1.47032857e+00
      7.44733691e-01 -3.24264574e+00 -1.56982410e+00 -6.42307281e-01
      1.52898955e+00 2.32666159e+00 -2.06116819e+00 -1.37702858e+00
      -9.13680911e-01 -5.88387400e-02 5.25340414e+00 8.48286533e+00
      1.08479798e+00 -5.14579378e-02 6.68305922e+00 4.53514546e-01
      -2.10426116e+00 1.37836874e+00 6.67685509e-01 1.98022687e+00
      -4.15460318e-01 -2.04919958e+00 -3.70452642e-01 -2.55181599e+00
      1.32336938e+00 1.33680010e+00 3.96538049e-01 1.81557268e-01
      -2.65987182e+00 -1.43126035e+00 -3.54631007e-01 2.35908508e+00
      -2.10335159e+00 -1.33142471e-01 -9.07571852e-01 -2.03243680e-02
      -1.67114353e+00 4.40190211e-02 -1.40700951e-01 -3.57669926e+00
      6.45719588e-01 -2.41394854e+00 -1.66236937e+00 -3.90878749e+00
      -1.22965217e+00 -9.38123882e-01</_></support_vectors>
  <uncompressed_sv_total>15</uncompressed_sv_total>
  <uncompressed_support_vectors>
    <_>
      6.48648664e-02 5.40540554e-03 0. 2.16216221e-02 0. 0. 0. 0.
      3.24324332e-02 5.40540554e-03 0. 0. 5.40540554e-03 0.
      5.40540554e-03 5.40540554e-03 5.40540554e-03 0. 0. 0.
      5.40540554e-03 0. 5.40540554e-03 0. 0. 1.62162166e-02 0.
      5.40540554e-03 0. 1.08108111e-02 0. 1.62162166e-02 5.40540554e-03
      5.40540554e-03 1.08108111e-02 1.08108111e-01 0. 0. 4.32432443e-02
      5.40540554e-03 1.13513514e-01 0. 2.27027029e-01 0. 0.
      5.40540554e-03 5.40540554e-03 0. 5.40540554e-03 5.40540554e-03
      5.40540554e-03 0. 1.08108111e-02 0. 0. 1.67567566e-01 0. 0. 0.
      5.40540554e-03 5.40540554e-03 0. 0. 2.70270277e-02 5.40540554e-03
      0. 0. 2.16216221e-02 0. 0.</_>
    <_>
      4.47761193e-02 2.98507456e-02 0. 5.97014911e-02 1.49253728e-02
      1.49253728e-02 0. 0. 8.95522386e-02 0. 0. 1.49253728e-02 0. 0.
      1.49253728e-02 1.49253728e-02 0. 0. 0. 0. 0. 0. 1.49253728e-02
      1.49253728e-02 5.97014911e-02 0. 0. 1.49253728e-02 1.49253728e-02
      2.98507456e-02 0. 0. 0. 0. 7.46268630e-02 2.98507456e-02 0.
      1.49253728e-02 8.95522386e-02 2.98507456e-02 2.98507456e-02
      1.49253728e-02 1.49253728e-02 2.98507456e-02 1.49253728e-02 0. 0.
      0. 2.98507456e-02 1.49253728e-02 2.98507456e-02 0. 0. 0.
      1.49253728e-02 2.98507456e-02 0. 1.49253728e-02 0. 0.
      1.49253728e-02 0. 0. 5.97014911e-02 0. 0. 0. 0. 0. 0.</_>
    <_>
      6.30630627e-02 2.70270277e-02 1.80180185e-02 4.50450480e-02 0.
      1.80180185e-02 1.80180185e-02 0. 4.50450480e-02 0. 0.
      9.00900923e-03 1.80180185e-02 9.00900923e-03 9.00900923e-03
      9.00900923e-03 9.00900923e-03 0. 0. 0. 0. 0. 1.80180185e-02 0.
      1.80180185e-02 9.00900923e-03 0. 0. 0. 9.00900923e-03
      9.00900923e-03 0. 9.00900923e-03 2.70270277e-02 6.30630627e-02
      8.10810849e-02 0. 9.00900923e-03 7.20720738e-02 9.00900923e-03
      5.40540554e-02 1.80180185e-02 9.00900960e-02 9.00900923e-03 0. 0.
      1.80180185e-02 0. 9.00900923e-03 9.00900923e-03 0. 0.
      9.00900923e-03 0. 0. 6.30630627e-02 0. 0. 0. 0. 9.00900923e-03
      9.00900923e-03 1.80180185e-02 9.00900923e-03 0. 0. 0. 0.
      9.00900923e-03 3.60360369e-02</_>
    <_>
      1.03174612e-01 0. 0. 2.38095261e-02 0. 0. 1.58730168e-02 0.
      2.38095261e-02 0. 7.93650839e-03 0. 0. 0. 0. 0. 0. 1.58730168e-02
      0. 7.93650839e-03 0. 0. 7.93650839e-03 0. 0. 0. 0. 0.
      1.58730168e-02 0. 0. 7.93650839e-03 0. 0. 3.96825410e-02
      1.34920642e-01 0. 0. 3.17460336e-02 0. 5.55555597e-02 0.
      2.46031761e-01 0. 0. 7.93650839e-03 0. 0. 0. 0. 0. 7.93650839e-03
      0. 0. 7.93650839e-03 1.03174612e-01 0. 0. 0. 0. 0. 7.93650839e-03
      0. 1.19047627e-01 0. 7.93650839e-03 0. 0. 0. 0.</_>
    <_>
      8.05369169e-02 1.34228189e-02 6.71140943e-03 1.34228189e-02 0. 0.
      6.71140943e-03 6.71140943e-03 5.36912754e-02 0. 0. 1.34228189e-02
      6.71140943e-03 0. 0. 0. 0. 6.71140943e-03 6.71140943e-03
      6.71140943e-03 0. 1.34228189e-02 6.71140943e-03 0. 6.71140943e-03
      0. 0. 0. 6.71140943e-03 0. 0. 6.71140943e-03 0. 0. 2.01342292e-02
      1.07382551e-01 6.71140943e-03 0. 4.69798669e-02 0. 3.35570462e-02
      6.71140943e-03 1.67785242e-01 0. 0. 0. 1.34228189e-02 0. 0. 0. 0.
      0. 6.71140943e-03 6.71140943e-03 0. 2.01342285e-01 6.71140943e-03
      0. 0. 0. 0. 6.71140943e-03 6.71140943e-03 8.05369169e-02 0.
      6.71140943e-03 0. 1.34228189e-02 0. 0.</_>
    <_>
      4.43349741e-02 1.47783253e-02 0. 2.46305410e-02 0. 0.
      4.92610829e-03 4.92610829e-03 2.46305410e-02 4.92610829e-03
      4.92610829e-03 1.47783253e-02 0. 0. 0. 0. 0. 1.47783253e-02
      4.92610829e-03 9.85221658e-03 0. 4.92610829e-03 4.92610829e-03
      9.85221658e-03 4.92610829e-03 0. 0. 0. 0. 4.92610829e-03 0. 0. 0.
      0. 1.47783253e-02 7.38916248e-02 0. 0. 4.43349741e-02 0.
      6.40394092e-02 4.92610829e-03 3.20197046e-01 1.97044332e-02 0. 0.
      0. 0. 9.85221658e-03 0. 0. 0. 0. 4.92610829e-03 4.92610829e-03
      1.67487681e-01 9.85221658e-03 0. 4.92610829e-03 4.92610829e-03 0.
      4.92610829e-03 4.92610829e-03 2.46305410e-02 4.92610829e-03 0. 0.
      4.92610829e-03 0. 4.92610829e-03</_>
    <_>
      7.69230798e-02 0. 0. 2.19780225e-02 0. 0. 0. 5.49450563e-03
      3.29670347e-02 1.64835174e-02 5.49450563e-03 0. 5.49450563e-03 0.
      0. 0. 5.49450563e-03 0. 5.49450563e-03 0. 0. 0. 2.19780225e-02 0.
      0. 0. 0. 1.09890113e-02 0. 0. 5.49450563e-03 0. 0. 0.
      3.29670347e-02 1.09890111e-01 5.49450563e-03 0. 3.29670347e-02 0.
      3.29670347e-02 1.64835174e-02 3.02197814e-01 1.09890113e-02
      5.49450563e-03 0. 0. 0. 0. 0. 0. 5.49450563e-03 0. 5.49450563e-03
      5.49450563e-03 1.31868139e-01 0. 0. 5.49450563e-03 0.
      1.09890113e-02 0. 5.49450563e-03 6.04395606e-02 0. 5.49450563e-03
      0. 0. 0. 0.</_>
    <_>
      5.19480519e-02 0. 0. 3.89610380e-02 1.29870130e-02 0. 0.
      1.29870130e-02 9.09090936e-02 1.29870130e-02 0. 1.29870130e-02 0.
      0. 0. 0. 2.59740259e-02 0. 1.29870130e-02 0. 2.59740259e-02 0.
      1.29870130e-02 0. 0. 0. 1.29870130e-02 0. 1.29870130e-02 0. 0. 0.
      1.29870130e-02 0. 2.59740259e-02 7.79220760e-02 1.29870130e-02 0.
      1.29870130e-02 0. 2.59740259e-02 0. 1.42857149e-01 0. 0. 0. 0.
      1.29870130e-02 0. 0. 3.89610380e-02 1.29870130e-02 0. 0. 0.
      1.55844152e-01 2.59740259e-02 0. 0. 1.29870130e-02 0. 0. 0.
      6.49350658e-02 0. 0. 2.59740259e-02 0. 0. 0.</_>
    <_>
      2.09205020e-02 1.25523005e-02 8.36820062e-03 2.92887017e-02
      1.25523005e-02 4.18410031e-03 4.18410031e-03 0. 3.34728025e-02
      4.18410031e-03 4.18410031e-03 8.36820062e-03 4.18410031e-03
      4.18410031e-03 0. 0. 8.36820062e-03 3.76569033e-02 4.18410031e-03
      2.51046009e-02 4.18410031e-03 0. 1.67364012e-02 4.18410031e-03
      8.36820062e-03 8.36820062e-03 8.36820062e-03 0. 4.18410031e-03 0.
      0. 4.18410031e-03 4.18410031e-03 4.18410031e-03 2.51046009e-02
      2.09205020e-02 4.18410031e-03 0. 8.36820062e-03 8.36820062e-03
      7.94979036e-02 4.18410031e-03 1.12970710e-01 1.67364012e-02
      4.18410031e-03 8.36820062e-03 1.25523005e-02 1.25523005e-02 0. 0.
      1.67364012e-02 0. 1.67364012e-02 4.18410031e-03 0. 1.96652710e-01
      1.25523005e-02 4.18410031e-03 1.25523005e-02 8.36820062e-03
      1.25523005e-02 4.18410031e-03 4.18410031e-03 6.27615079e-02 0.
      1.25523005e-02 1.25523005e-02 0. 4.18410031e-03 4.18410031e-03</_>
    <_>
      3.40909101e-02 3.78787890e-03 3.78787890e-03 4.16666679e-02 0. 0.
      0. 7.57575780e-03 3.40909101e-02 0. 0. 3.78787890e-03 0. 0.
      3.78787890e-03 3.78787890e-03 7.57575780e-03 2.65151523e-02
      7.57575780e-03 2.27272734e-02 0. 2.27272734e-02 3.78787890e-03
      1.13636367e-02 7.57575780e-03 3.40909101e-02 3.78787890e-03
      7.57575780e-03 0. 0. 3.78787890e-03 7.57575780e-03 3.78787890e-03
      0. 7.57575780e-03 2.65151523e-02 0. 0. 2.27272734e-02
      3.78787890e-03 3.78787890e-02 0. 2.50000000e-01 3.78787890e-03
      3.78787890e-03 3.78787890e-03 7.57575780e-03 0. 3.78787890e-03 0.
      7.57575780e-03 0. 1.13636367e-02 7.57575780e-03 3.78787890e-03
      1.43939406e-01 3.78787890e-03 0. 0. 0. 7.57575780e-03 0.
      7.57575780e-03 8.71212184e-02 0. 3.78787890e-03 0. 3.40909101e-02
      0. 3.78787890e-03</_>
    <_>
      6.99300691e-03 6.99300691e-03 1.39860138e-02 3.49650346e-02 0. 0.
      0. 2.09790207e-02 1.39860138e-02 6.99300691e-03 0. 1.39860138e-02
      6.99300691e-03 0. 0. 0. 6.99300691e-03 1.39860138e-02
      2.09790207e-02 1.39860138e-02 0. 0. 6.99300691e-03 6.99300691e-03
      0. 0. 6.99300691e-03 0. 6.99300691e-03 0. 6.99300691e-03
      2.09790207e-02 0. 0. 6.99300691e-03 4.19580415e-02 0. 0.
      1.39860138e-02 0. 2.09790207e-02 0. 2.79720277e-01 2.09790207e-02
      6.99300691e-03 0. 0. 2.09790207e-02 0. 0. 1.39860138e-02 0.
      2.09790207e-02 1.39860138e-02 6.99300691e-03 1.60839155e-01
      1.39860138e-02 0. 1.39860138e-02 1.39860138e-02 0. 0.
      6.99300691e-03 5.59440553e-02 0. 0. 1.39860138e-02 6.99300691e-03
      6.99300691e-03 0.</_>
    <_>
      3.52941193e-02 5.88235306e-03 1.17647061e-02 1.17647061e-02 0.
      1.76470596e-02 5.88235306e-03 1.17647061e-02 1.17647061e-02
      1.76470596e-02 5.88235306e-03 2.94117648e-02 5.88235306e-03 0.
      1.17647061e-02 5.88235306e-03 1.17647061e-02 0. 2.35294122e-02 0.
      1.17647061e-02 0. 5.88235306e-03 1.76470596e-02 1.76470596e-02 0.
      5.88235306e-03 1.17647061e-02 0. 0. 0. 0. 1.17647061e-02
      5.88235306e-03 2.35294122e-02 1.00000001e-01 0. 0. 5.29411770e-02
      5.88235306e-03 5.29411770e-02 5.88235306e-03 1.23529412e-01 0. 0.
      5.88235306e-03 0. 1.17647061e-02 5.88235306e-03 0. 1.76470596e-02
      5.88235306e-03 1.17647061e-02 5.88235306e-03 0. 4.11764719e-02
      2.35294122e-02 5.88235306e-03 1.76470596e-02 1.76470596e-02
      2.94117648e-02 5.88235306e-03 0. 7.64705911e-02 0. 2.35294122e-02
      1.17647061e-02 0. 0. 5.88235306e-03</_>
    <_>
      0. 0. 2.91262139e-02 9.70873795e-03 0. 0. 0. 0. 4.85436916e-02 0.
      0. 9.70873795e-03 0. 0. 0. 9.70873795e-03 1.94174759e-02 0.
      1.94174759e-02 0. 0. 0. 3.88349518e-02 9.70873795e-03
      9.70873795e-03 0. 1.94174759e-02 0. 0. 0. 2.91262139e-02 0.
      1.94174759e-02 0. 2.91262139e-02 3.88349518e-02 0. 0.
      9.70873795e-03 0. 1.94174759e-02 9.70873795e-03 2.33009711e-01 0.
      1.94174759e-02 1.94174759e-02 0. 1.94174759e-02 0. 0.
      1.94174759e-02 9.70873795e-03 0. 0. 9.70873795e-03 1.26213595e-01
      1.94174759e-02 9.70873795e-03 0. 0. 1.94174759e-02 0. 0.
      5.82524277e-02 0. 0. 2.91262139e-02 0. 1.94174759e-02
      9.70873795e-03</_>
    <_>
      3.36134471e-02 0. 0. 2.52100863e-02 1.68067235e-02 0. 0.
      8.40336177e-03 2.52100863e-02 0. 0. 3.36134471e-02 0. 0.
      1.68067235e-02 0. 0. 8.40336177e-03 8.40336177e-03 0. 0. 0.
      1.68067235e-02 0. 1.68067235e-02 1.68067235e-02 0. 8.40336177e-03
      0. 8.40336177e-03 0. 0. 0. 0. 1.68067235e-02 4.20168079e-02 0.
      1.68067235e-02 1.68067235e-02 1.68067235e-02 8.40336159e-02 0.
      2.60504216e-01 8.40336177e-03 0. 8.40336177e-03 0. 8.40336177e-03
      8.40336177e-03 0. 8.40336177e-03 0. 1.68067235e-02 8.40336177e-03
      8.40336177e-03 1.51260510e-01 1.68067235e-02 0. 0. 0. 0. 0. 0.
      4.20168079e-02 0. 8.40336177e-03 0. 0. 0. 8.40336177e-03</_>
    <_>
      3.63636352e-02 0. 9.09090880e-03 3.63636352e-02 9.09090880e-03 0.
      0. 1.81818176e-02 3.63636352e-02 0. 9.09090880e-03 0. 0. 0. 0. 0.
      0. 4.54545431e-02 9.09090880e-03 4.54545431e-02 0. 1.81818176e-02
      9.09090880e-03 9.09090880e-03 0. 2.72727273e-02 9.09090880e-03
      1.81818176e-02 0. 0. 9.09090880e-03 3.63636352e-02 0.
      9.09090880e-03 0. 8.18181783e-02 0. 0. 2.72727273e-02 0.
      1.45454541e-01 0. 4.54545431e-02 9.09090880e-03 0. 0.
      9.09090880e-03 9.09090880e-03 9.09090880e-03 0. 9.09090880e-03 0.
      9.09090880e-03 9.09090880e-03 9.09090880e-03 1.18181817e-01 0. 0.
      0. 0. 0. 0. 9.09090880e-03 0. 0. 9.09090880e-03 9.09090880e-03
      8.18181783e-02 0. 0.</_></uncompressed_support_vectors>
  <decision_functions>
    <_>
      <sv_count>1</sv_count>
      <rho>1.5865599200161724e+00</rho>
      <alpha>
        1.</alpha>
      <index>
        0</index></_></decision_functions></opencv_ml_svm>
</opencv_storage>
